<?xml version="1.0"?>
<opencv_storage>
<stage5>
  <maxWeakCount>8</maxWeakCount>
  <stageThreshold>-1.6477261781692505e+000</stageThreshold>
  <weakClassifiers>
    <_>
      <internalNodes>
        0 -1 12992 9.0267676860094070e-003</internalNodes>
      <leafValues>
        -7.4807691574096680e-001 1.3333334028720856e-001</leafValues></_>
    <_>
      <internalNodes>
        0 -1 57956 1.7666347048361786e-005</internalNodes>
      <leafValues>
        -4.3275308609008789e-001 3.5493779182434082e-001</leafValues></_>
    <_>
      <internalNodes>
        0 -1 58596 1.5523059119004756e-005</internalNodes>
      <leafValues>
        -4.3256941437721252e-001 3.4104058146476746e-001</leafValues></_>
    <_>
      <internalNodes>
        0 -1 72854 5.9220036491751671e-003</internalNodes>
      <leafValues>
        -2.7266344428062439e-001 5.6617438793182373e-001</leafValues></_>
    <_>
      <internalNodes>
        0 -1 69908 3.6796352360397577e-003</internalNodes>
      <leafValues>
        -4.3370285630226135e-001 3.6371499300003052e-001</leafValues></_>
    <_>
      <internalNodes>
        0 -1 49920 -2.0140236301813275e-005</internalNodes>
      <leafValues>
        5.0955003499984741e-001 -2.9228541254997253e-001</leafValues></_>
    <_>
      <internalNodes>
        0 -1 18111 -3.1177077442407608e-002</internalNodes>
      <leafValues>
        -9.8561722040176392e-001 1.5982861816883087e-001</leafValues></_>
    <_>
      <internalNodes>
        0 -1 29983 2.9066082090139389e-002</internalNodes>
      <leafValues>
        2.1767002344131470e-001 -7.7094906568527222e-001</leafValues></_></weakClassifiers></stage5>
</opencv_storage>
